0.00932423831727
0.0459584151276
0.0263572112851
0.000433171187559
0.011173644211
-0.0301624059561
-0.0239735603277
-0.0305445694176
-0.0147665378535
0.0185813958143
-0.0037859061992
0.00677230318416
-0.0153936096192
-0.00937849896017
0.0219315085061
0.0272100167253
-0.0112994347786
0.00230278245088
-0.0101213795358
0.00486303823027
-0.0141337911965
0.0193294723453
-0.0251023643395
-0.0216222340216
-0.0153133800337
0.0030283746014
0.00253243952087
-0.00759056629655
-0.00668970525369
0.00790132175274
-0.0107659060421
-0.025447538344
0.00301291218145
-0.0240474295736
-0.0255904452673
-0.0181011111172
-0.0355783831722
-0.0229658236623
0.0123369732966
-0.0111094110046
-0.0158242600565
0.0117081844316
-0.0126100829574
0.00535897786853
-0.0158152652332
0.0166165189131
0.0300175580487
-0.0363890432332
0.0149080608361
0.0272479535853
-0.0257153350516
0.0305816365665
-0.00303077575642
-0.00215227958451
-0.0259300753372
0.00910647343275
0.0275665271583
0.0325012598721
0.0176108938402
-0.00930541987877
-0.0109932680296
-0.0102567480658
-0.0111741941761
-0.0131868278771
-0.0141881286677
-0.00461368525661
0.00454814333628
-0.0168710647749
0.0279765610623
0.0113348020502
0.0232249270265
-0.0242926807821
0.00194425859756
-0.0114563460298
-0.0129267592007
-0.0289032393287
-0.00856901941133
-0.00413222572326
-0.0159402866807
-0.0237571892694
-0.00103528685504
-0.0218674177162
-0.0169341213017
-0.00771032053473
-0.0162099261359
0.00728697380886
-0.0243126366666
-0.0245287065805
-0.00626973907794
0.0125485012166
-0.0458360981581
0.00108191003295
-0.00637353012059
0.0339890871463
4.28859701952e-05
0.000138162455656
0.0219999845132
0.000341031645106
0.00935079935752
-0.0199816497361
0.0120173048801
0.00970435441736
0.000804336318671
-0.0158645302711
-0.0186940731767
-0.0252433657909
-0.00353567067952
-0.00417182134444
-0.0336440248387
-0.0199761489397
-0.0102748061412
0.000335891712103
-0.0320379556707
0.00708407240742
-0.00521564570218
-0.0289671606674
-0.00994285245832
0.00592795169716
-0.018844126032
-0.0119624638593
-0.013089275599
0.0252691466894
0.00350638713852
-0.024660305572
-0.0324246692064
0.0286277264765
-0.0244755559985
0.0355166854444
0.0274839107752
0.0278720441016
0.0141097713843
0.0113459892749
-0.0215576752762
-0.00524168866748
0.0149616780624
0.00955837602883
-5.73095234558e-05
0.0310348398077
-0.0241654857499
-0.00568506913169
-0.00495569482966
-0.0256016933979
0.0101323395961
-0.00734428308014
0.02095772249
-0.0117302642365
0.0158164602759
-0.0113727663521
-0.0207156990039
-0.00109975997439
-0.0153354365278
-0.0109864278539
0.00481988162898
0.00912438702073
-0.0283905498307
-0.00689453723172
-0.0108310582109
0.0160120906808
0.00286081906841
-0.0182416665484
-0.00622485400866
0.0121257179762
-0.0100565168894
-0.0268157539697
-0.00368520332521
-0.0253935343424
0.00162794656276
-0.0043287866695
-0.027355573626
-0.0248743488347
0.00949898140117
0.00110191756923
0.00789094193907
-0.00297674120709
0.0279409793475
-0.0263875632295
-0.023716833969
0.00167336941284
-0.000591067818486
0.00362201619497
-0.0127141303479
0.018339450226
0.0337634452344
-0.0126753094141
0.00383222672306
-0.0457083615458
-0.0302245509345
0.0341419544567
-0.00409745713081
0.00190633049405
-0.0117152697995
-0.0303851375455
0.0109874236925
-0.0255660145384
-0.0286520224129
-0.026349685169
-0.00320146359021
-0.00202488377628
-0.00452436080571
0.0305735322798
-0.0135069636479
-0.0254778249188
-0.00591562440328
0.00984470995255
-0.00721905564332
0.0167683518555
-0.00145800162711
0.0138939962378
0.0259338810119
-0.0274918461274
-0.0165821214967
-0.0204737344514
-0.0220663768684
-0.00223047385348
-0.0273733318309
0.0022741573208
0.0319437701824
0.00808576983093
0.0174487674866
0.0260732538692
0.0096910324464
-0.0215116875693
-0.0318343187737
-0.0181835431937
0.00955629885462
0.0167791170182
0.0108373478596
-0.0260807921586
-0.0133897165966
-0.0275791339175
0.00386324112289
-0.0141556304666
-0.0171199777029
-0.0141666021277
-0.0152307587446
-0.0290698779956
-0.00666912816223
-0.0195155618533
0.00389252630187
-0.0289093650601
-0.016280771677
-0.00410999287161
-0.0288927606542
-0.021441218458
-0.0150611470057
-0.0184030360232
-0.019886936148
-0.014902849256
0.0181690614686
-0.0013780019861
-0.00158926925646
-0.0015531053699
-0.00952783584255
-0.0136461714996
0.0131629927506
-0.0252998085801
0.00520796707618
-0.013553860049
-0.0263399095437
0.00473843255274
-0.0239424306152
-0.0075814150592
0.0138128939471
0.0157016479098
0.00111896502206
-0.00137585771787
-0.0157296322384
-0.0274403981463
0.0030326628524
-0.00971870494948
0.015509516228
-0.0242825788947
-0.0228961786131
-0.0199515326879
0.00523572205525
0.0114912724524
-0.0254912855513
-0.0271577761253
-0.00130799307976
0.0238194203153
-0.034466472757
-0.0213447295918
-0.0276640891768
-0.026974121192
-0.00759323200751
-0.00332769335567
-0.00614877599044
-0.0175233368384
-0.0152319366356
0.00781078933322
0.00169315602033
0.0167432379363
-0.00470096767227
-0.0101162239588
-0.0283792381577
0.0100915247381
-0.00664294765366
0.0114460491728
-0.0132588163488
-0.0154623497547
-0.00486262498799
0.0109525328848
-0.0165432822187
-5.82687057902e-05
0.00377117303245
-0.0189377645823
-0.00688752365849
0.0134199022976
-0.0262686764131
-0.0160802141211
-0.00794979734537
-0.0261637855044
-0.0155987676674
-0.0014553496129
-0.000287583849504
0.0328324676226
0.0314740720512
-0.0248802218249
-0.0272005068311
0.0271321966158
-0.00636941060451
-0.0221089912538
0.0154048499958
-0.030342480177
0.0106584450269
0.00880444587257
-0.0127209245687
-0.00834206290745
-0.0237675384644
-0.0354033643942
0.0198838404432
0.0034393527658
-0.0258570311309
-0.0300223949929
-0.0134795344344
0.0163476839855
-0.00601112923357
-0.0035158425999
0.0118966365489
-0.00911172000826
-0.0127730004667
0.00551480324033
-0.0253396390778
-0.0256979446846
-0.00703654329752
-0.0227487076952
-0.0038072593042
0.0133137110868
-0.0131014049894
-0.0225159664093
-0.00329319606874
-0.00176976607828
-0.0057495081228
-0.0584169976276
-0.0135703403276
0.00513683814301
-0.00724858828319
-0.00586821117124
-0.0143947943959
-0.00461063094601
-0.0173149890694
0.012326321048
-0.00596189576028
-0.0126286534823
0.0253560944435
-0.00274696031613
0.0156935053065
-0.0207814675432
-0.0184510995942
-0.00684773323894
-0.0265806628776
-0.0316073391358
-0.00828446475444
-0.00522507894382
-0.0269710843924
-0.000325258215173
-0.0312243126138
-0.0111111492628
-0.0131672531379
-0.00117270812805
-0.0200012656145
-0.0256008479487
0.0206452670221
0.0170394696927
-0.000354875118625
-0.0120048754119
-0.0252867408609
-0.0261517562129
-0.027456639605
0.0274948850864
0.0116283380446
-0.0247648688169
-0.0116266725284
-0.0214149445275
0.0217132185222
0.0185539429022
-0.00276817722886
-0.0231578519343
0.00230589709562
0.0153636182964
-0.0222303094643
0.00661199383599
0.0104596550744
0.0152707624718
0.00591157747679
-0.0277860780451
0.00034081591607
-0.00358827047397
0.00653807073242
-0.0292774310783
0.0166644115877
-0.037935821877
-0.0211776398589
0.0354261449945
-0.00586268048228
-0.0228898755369
-0.0256506858476
-0.0171621621538
0.000108970819299
0.0196366848699
0.00647997281479
-0.00900613786608
0.00541170507928
-0.0280427103369
-0.00155545325693
-0.0114921078771
-0.0343165946431
-0.0181177177757
-0.021164620361
-0.0253141747387
-0.0315543964743
-0.00609184616772
0.0419383357493
0.0203965970066
0.0153030792905
-0.0160834199491
0.00277584675577
-0.0208748363088
0.00686636680762
-0.00657042129656
0.0110609007975
0.00482974634473
0.0148235941301
0.00726097805219
0.00124021221407
0.0313531754439
-0.00992324220314
-0.00144613024907
-0.000139207636314
0.00478416566598
-0.0267513518338
-0.0214642201016
0.024908132396
0.00863474095726
0.00578641251148
0.00166280077514
-0.0260624617337
-0.0208666798081
-0.0103503530004
-0.0113448301271
0.0165238458977
0.0111395480924
0.00675558855352
-0.00203534012625
-0.0213269493406
-0.00851768115495
0.0230513280633
-0.0107595308277
-0.0448145011044
-0.0313082224426
-0.0194289913156
-0.0320383499143
0.00854681858308
-0.000799572329077
-0.028689710312
0.00475497786077
-0.0112800331172
0.0405219727246
-0.0241814660274
0.0383856325147
-0.00890976568357
-0.00626962963707
-0.00941904823272
-0.00127268316458
0.00472323138046
-0.0294350170405
0.0109088816703
0.00623115532274
-0.0109802472652
0.00537990046103
-0.0240286522291
-0.0208297914718
-0.000204064870861
-0.00316151856554
-0.0266749736942
0.000657019208876
-0.0268675449471
0.016282409316
-0.0132964076451
-0.0243895429412
-0.00769238970763
-0.0173460934746
0.0264413591583
-0.0179016583927
-0.0273602208891
0.00869742880911
-0.0150707593515
-0.0131092372449
0.012247944646
-0.0122199877162
-0.0174427055351
0.0231189423517
0.00832102440893
-0.0312493298718
-0.0405985830423
-0.00301001121387
-0.0221590515144
0.00469857398618
-0.00633522059132
0.0234684605554
0.0175156905678
-0.0162667904982
-0.0109654234114
-0.00885803418702
-0.0199077370995
-0.0266129598845
0.00859511205215
-0.0335105191346
0.0181959272225
-0.00758206340716
-0.0148955106133
0.0151054680081
0.00921617440269
-0.0272281917491
0.000175526953636
0.000832854645469
-0.00947635625271
-0.00833518236632
-0.0189904884737
0.00288777750153
-0.0270791401187
0.0145779609158
-0.0177513613256
-0.0245374781804
0.0205448367831
-0.0216406329507
-0.00830223900548
-0.00569196260283
0.00260281380617
0.00175075234594
0.00813847253999
-0.00645266956276
-0.00710716187351
0.00296326289838
0.0256539572434
0.00148464379466
0.00903145653179
0.0228880900369
-0.0329198663515
-0.0219932604692
0.0261064735336
-0.0192954750723
0.0117176589111
-0.0231354337428
0.00974056555779
-0.0125678454392
-0.0305630237543
-0.0017416601791
0.0468775367351
-0.00528827916084
-0.0239414958127
-0.0203763256497
0.00493045285455
-0.0282655092469
-0.0209435967384
-0.000413337044367
-0.0169351932822
-0.0248898280753
0.0263574265639
0.0101935651047
-0.00156544249577
-0.013970541599
-0.0290670225928
0.0180617250113
-0.0253094284238
-0.0134606456204
0.0112028617851
-0.00113018289837
0.00947894610195
-0.00209821897237
0.00166258883068
-0.0250160622287
-0.0266711352733
-0.0130564651454
-0.0211309657229
-0.0337362488643
-0.00691000162879
0.00173655477689
0.00834573433828
-0.00583044184917
-0.0291595154149
0.0033318751825
-0.0149597654294
0.0060239134107
-0.0316329086182
-0.0254186677477
-0.0137359541394
-0.0232294024973
0.0175427548233
-0.000160779215941
-0.0292976767206
-0.0210959665617
-0.0126291719154
-0.0141705438299
0.0273180892278
0.000960236965419
-0.0239894444135
0.0189218708303
-0.00741132290446
-0.0336863143163
-0.0150451112064
0.00775640180912
0.0182547299406
-0.000364836808239
0.0111609032476
-0.020412348983
-0.0235372352578
0.0171054125883
0.0303214740025
0.00490745672299
0.0157333740741
0.0304144509267
-0.00278543448935
0.00324680550191
-0.0206974789161
-0.0293173351313
0.00821236627208
0.00822185756207
-0.00304984157149
-0.0159295113648
-0.00253722152358
-0.0283672403177
0.0117725966449
-0.00532290121973
-0.0111493869816
-0.018470634964
0.000283279072858
-0.0232575074139
0.000389691367777
0.0171935074458
0.0430318980604
-0.0262804073105
-0.0102014327976
0.0053174404241
-0.0260285121255
0.000835014787754
-0.0049061490477
0.0289512209134
-0.00926140984415
0.0108730495455
-0.00868990430202
0.00508041902872
0.00696700295619
-0.000454550307797
0.0303843609798
0.0033282993364
0.0025630059591
-0.0125057913191
-0.00522370782583
-0.0272903763806
0.0444424510175
-0.00893120703294
-0.00111325054327
0.0188597358756
-0.0157079974961
-0.0125030196074
0.00345223862618
-0.0109965150402
-0.0290905640359
0.0214273664671
0.0191113876754
-0.0269052947287
-0.0229973723376
-0.0259027495876
-0.00756004056526
0.0217105352134
0.00508920573461
0.0269485502222
-0.025673101261
-0.0274660314166
-0.0290499807087
-0.0137622327524
-0.0241507063172
-0.00282614699509
-0.000882882719315
-0.00570912241636
-0.0018673017364
-0.023203546368
-0.0142987395077
0.00521497925805
-0.00532487203414
0.0181823438265
0.0064017318814
-0.0097241913389
0.0145435356106
-0.00954094057291
-0.0183197152076
-0.0247646780471
-0.00298750296104
-0.014410862722
-0.0285040946892
0.0135466528558
-0.0217038601013
-0.0334806876806
-0.00378113160322
0.0073079691573
-0.0235574810507
-0.0327526504685
-0.0248747970745
-0.00922850283414
-0.0183172920464
0.0104487090101
-0.00644329778111
-0.0259269388299
0.00193111945757
-0.0180714087156
-0.0289050039375
0.00413573819116
-0.0148607325349
0.0120857200548
-0.00507563151416
6.29410373726e-05
0.0238588290545
-0.0159169068834
-0.00509108330561
-0.0510934527065
0.0127734345003
-0.032237052301
0.00137714757253
0.0406210218819
0.00227818375092
-0.00725832828733
-0.0141409188719
-0.00762652193122
-0.0118280554929
0.012863384234
-0.0152137848978
0.0199885667709
-0.0108365173309
-0.0265749295826
0.0230726227473
-0.032313818621
-0.0115746528966
-0.0169221052572
-0.0043876110293
-0.0378308443877
0.0143220544255
0.00487059051767
0.0227059701629
0.0176751564309
-0.0295347250553
0.0320237839842
0.0161233442739
-0.0338182648352
0.0202616904845
-0.000215546754921
-0.0227845915988
0.0319221615596
0.0158485559742
-0.0192823177169
0.0126242272683
-0.0133548942136
-0.0213113817086
-0.0234288616367
0.00222157609532
0.0297438373652
-0.010508399054
-0.0259786657801
-0.00119778577542
-0.0266100917976
0.00425701134411
-0.0330663248134
0.0416567809406
0.0207969309116
-0.014152813117
-0.0238141819781
-0.0246666235344
-0.00330861642152
0.0289675362843
-0.0269774517895
0.0112836817871
0.00524501749795
-0.00605041702851
0.0255118560395
0.0288790471768
-0.0112536730656
0.0143608583563
-0.0129192334349
0.0193281664767
0.01634932539
-0.0216993810036
-0.0234596858984
0.0203101715362
0.0187772345899
-0.028932054071
-0.0242503138841
-0.00399654064166
-0.0101214619258
-0.00379603599472
0.00847719113299
-0.00266731389117
-0.0269366681647
-0.0279921353645
-0.0282010449301
-0.00266556043321
-0.0217007128698
-0.00619804816124
0.0025038570552
-0.0160443563425
0.0328069336334
-0.00358786813015
-0.0256369808752
-0.0313514930473
-0.00037796582766
0.00698682579767
-0.025087416048
-0.0149855608736
-0.0157059561766
-0.0236316922859
-0.01322357098
-0.0226642924169
-0.000325352580961
-0.00482663261849
0.0214632097612
0.0302459001094
-0.0267928735696
0.0136771019479
-0.00582837454807
-0.000658939930422
-0.026168492519
0.0481727261969
-0.0054058775856
-0.0285252837981
-0.00991996967782
0.00467406300101
0.00733294866642
-0.00936165929
-0.0137066348728
-0.00651790413944
0.0177522537005
0.0158516805635
-0.0147066331076
-0.0237619718355
0.0178980090181
-0.0348818781803
0.0123638931318
0.0181167175413
-0.00131173736797
0.00883131564747
-0.0183448430433
-0.00645512492548
-0.0228436225634
0.0191201330939
-0.0289953434176
-0.025625521209
0.00605696546649
0.000340308575261
-0.0238673928284
0.0041320842272
0.0181282050911
-0.00986215493639
-0.0115112685607
-0.00417215373792
0.00483020994191
0.00941069086131
-0.0242041187723
-0.00842195930297
-0.00193019707137
-0.000725587134861
0.00575200403221
0.022586410767
0.0191720348256
-0.00766482117161
0.0267020036902
0.0023958284866
0.0224402500428
-0.0277701996835
0.00894830001804
-0.0249815029227
-0.0192143374213
0.00219893933254
-0.0125125225655
-0.00571155705298
-0.0273357415437
-7.25806624258e-05
-0.0191370488415
0.00246112509255
-0.0193706385581
-0.0150595532347
0.0105369698844
-0.0184462286859
0.0159090545486
0.0262711074156
0.0157563363878
-0.0256839318526
0.0116629252619
0.00610788920226
-0.00125791833753
-0.0180738419472
-0.0253386453873
-0.00801673070061
-0.0112841843144
0.0167898771291
-0.000657815116714
-0.0232958029342
-0.0115805892856
-0.0291573553421
9.99414879438e-05
0.0110840543738
0.0116086035663
0.0175089867975
-0.0094709137182
-0.0284541501627
0.0205586751031
-0.0175730838975
0.0167152365478
-0.00821214765485
-0.0251854062867
0.00568818680268
0.00986210956376
-0.00642345536527
-0.0139381272095
0.00695073514677
0.00329933043234
0.00472641447435
0.0136974901962
-0.0207730807771
-0.0314854243819
-0.0291419928886
-0.0265251298333
0.0148597500346
-0.00244896679639
0.0415592127886
-0.00656842417726
-0.00742665854244
-0.00295835263239
-0.00801360584213
-0.026953125532
0.011644322579
-0.00225252046914
-0.00562552375982
-0.0239867761139
0.00369464580792
-0.0133646668968
-0.022935876511
0.0114082964688
0.0110736732836
-0.0274770535628
-0.00742194779052
-0.0120051289738
-0.0403548926816
-0.0252815087603
-0.000651992379829
-0.0161800839726
0.00138887051545
-0.00210884117226
0.00673182288236
0.0140442993772
0.00269590577553
-0.0215730561432
-0.0310785694879
0.0119571689172
-0.0370835578307
-0.01543260573
-0.0274048285305
-0.00227525355391
0.0292215305603
0.020571487714
0.00594746727196
0.00549828530509
-0.0176540578112
-0.0180505351162
0.0138512386677
-0.0106406920151
-0.0330042051709
-0.0155547399641
0.0323273681343
0.00471612953508
-0.00182802206759
0.0189035702703
0.00786086515239
0.00105473295531
-0.00926710912531
0.00817138495147
-0.00912483661371
0.00266529793595
0.00715292975815
0.00523609613855
-0.0316219544578
-0.0292897494124
-0.0087891709905
-0.0249817675511
-0.00642595898613
-0.0132314592676
-0.0204744950416
-0.0250448166468
-0.00157970743153
0.0108291776669
-0.0149925705687
0.0031951661676
-0.0127614795673
0.0256858680293
0.0205864581431
-0.00934754783656
0.0227250247389
-0.0256537067848
-0.0130897893912
-0.00627956797786
0.00918491544799
-0.00988342746133
-0.0328675911534
-0.00579723801619
0.00643538809854
-0.00628525311966
-0.0167469529116
0.00167342107616
-0.0217332046964
-0.0309271705767
0.0251095177911
0.00125840425598
-0.00800816933817
-0.0095198189598
-0.00471589777702
-0.00584182670431
0.01130598586
-0.0290520636083
-0.0239134663057
0.0202182844259
-0.0248677928191
0.00202968839499
-0.0165966846531
-0.00104083106904
-0.0179408426577
-0.011685738089
-0.0272918885535
0.00255055880736
-0.0234924261931
-0.0270700916061
0.0182152414097
0.00592253668249
-0.0029209564286
-0.0140503145809
-0.0151232174012
-0.0250491510944
0.0385193962025
0.0483274677959
-0.00961464515515
-0.0165226789083
-0.0282939343447
-0.0405624985289
-0.00777305655756
-0.0180113831119
0.0138607097208
-0.02515667146
-0.00879382798334
0.00219634076574
0.00965469512344
-0.022599430991
0.00567992958594
-0.00993913972274
0.0174262119693
-0.0138224413717
-0.00650947648284
0.00259759873425
-0.020010801224
0.0088110994465
-0.0217777313183
0.0360213574081
-0.00682601692986
-0.0281204961667
0.00156640193672
-0.0259163942048
-0.0205623340747
0.0118843447802
-0.0154324696833
0.00417947706782
-0.0130531579315
0.00955822611709
-0.0186297793607
-0.0156569350665
-0.0133069526546
-0.0230416336876
-0.00830751319944
-0.000675351627137
0.0150837298899
-0.0131787696746
-0.0194465408926
-0.00534474884629
0.0129184056741
0.00471586162012
0.0397036027428
-0.00331097420408
-0.00552948341466
-0.00771385749935
-0.000220171532061
-0.0281783826025
0.00693477038436
0.00625927346695
0.0377046322957
-0.01072792938
0.00702277052007
0.0272219584564
-0.0260021032199
-0.0113343230785
-0.0225165090477
0.00149825048092
-0.0311513817481
0.011710729084
-0.0259197571042
-0.0229150831722
-0.0154990924586
-0.00111810165509
-0.0157032089477
-0.00350024382437
-0.0276500867495
0.00210733870061
-0.0227312412845
-0.0234983342941
-0.0242055875359
-0.0247043091093
0.0291481597579
0.0085916549534
0.0292898850939
-0.00162709730969
-0.00407180771247
-0.000716913628408
-0.0127380871078
0.01150156885
-9.24460309282e-05
-0.00867777282898
-0.00500257233839
-0.0172497114461
-0.0100849194291
0.00980530743256
0.022767362315
-0.0159730448807
0.00511217915169
-0.00448899025231
-0.0277475478537
0.0211893456473
0.00960709962594
0.00581929438274
0.0347202781523
-0.0229030787149
-0.0166212475478
0.0222542129782
0.00514217005225
0.0118553815142
0.00914673450814
0.0190836288922
-0.0101338914778
-0.0278670730977
-0.0120224053802
0.0247506728602
-0.00744495579172
-0.0125243778544
-0.00740808344394
-0.0219827670174
-0.00627461281966
0.00342678838329
0.00386164951846
0.0221847528999
0.000649745156805
-0.00973101012255
-0.0142013963826
-0.00990185171543
0.0119512250706
-0.036126551513
0.00897103028295
-0.0159819023007
-0.00129327115109
0.0262076447607
-0.0203148396661
-0.0161517477564
0.0125879925836
0.0156253043666
-0.00668682585196
-0.000150708362284
-0.032024238279
-0.00127224548757
-0.0224320579925
0.00168988273197
-0.0218393873363
-0.0207574019183
-0.0278749654371
-0.00938893414932
0.0153805912036
-0.0223726881905
-0.00751193881913
-0.00595420398192
-0.0329736086393
-0.0287104215317
-0.0262517328107
-0.00681754313089
0.00350327686199
-0.0160175097334
-0.00990309593014
0.0135577366187
-0.0154164575678
-0.0175433286969
-0.0121622625021
0.00970974311655
-0.0170429134321
-0.0220428841276
0.0123895066066
0.0063629749687
0.00156487316024
-0.00432440531186
-0.0111645328394
-0.0172038352388
0.00129258183891
-0.00569294245681
-0.0250242800893
-0.0215814621193
-0.0246561239727
0.00668821166612
-0.0238266209658
-0.00349753202717
0.0399341862228
-0.00888082947709
0.0088311230538
0.0121173684135
-0.0201741445008
0.0082851607224
0.0145980490892
-0.00614207075935
-0.025773824984
0.000583476982062
-0.00500601114481
-0.000867443460659
-0.0275589216935
0.0239984505653
0.0107441508499
0.0084908553671
-0.0234480150798
-0.00175998634793
-0.0241563511579
0.0116442971182
-0.00601993470612
-0.0235194836467
-0.0237844306905
0.0384191862965
-0.002148805671
-0.0185208190463
-0.0145869863731
-0.0244340125855
0.0377530013485
-0.0318900299261
0.000431246278165
-0.00995143247267
7.24718734466e-05
0.0091771006556
0.0248606906997
0.0190474476823
0.0247226973784
-0.0109316267915
0.0196982740464
-0.0192118450157
-0.0205941582638
0.00659526779066
-0.00241137102377
-0.0157410857331
-0.016269334136
-0.00628886618925
-0.00981276127324
0.0144781574677
0.0142414783261
-0.00602481970746
-0.0102401859573
-0.0205559527843
0.0190383158912
-0.0173416079287
-0.0144958934789
-0.000737729688368
0.0262851234597
-0.0227498224129
0.0198393290962
0.0167538266514
0.011508815967
0.0246354701929
-0.0102873981527
-0.00490664865915
-0.0137809209541
-0.0238563135457
-0.0123357395796
-0.0119457145151
0.00867337101535
0.0276767128091
-0.00505518041577
0.0159270064218
-0.00505341253916
0.0204505619003
-0.0262419469084
0.0335489550331
0.0262722410873
-0.0120160367374
-0.0285265101934
-0.0050849999739
-0.0312593993238
-0.0277300987045
-0.0274327627306
-0.028522840421
-0.0268353660075
-0.0316049748169
-0.00961506795934
-0.011634600325
-0.00226723579268
0.00709309840424
0.0170635614287
-0.000185130028353
-0.00277970438849
0.0163216678161
-0.0084103109696
-0.0298829399563
-0.0255392241732
-0.00483892085726
0.0124285357781
-0.00865867518411
-0.0229951931101
-0.00984316366683
-0.0068737383205
0.0140938285168
-0.00969924323633
-0.00487970796703
0.00538567871194
0.00133871329261
0.00419738619629
0.00544782170063
0.0114375170812
0.0272602560315
-0.00132979090721
-0.000674299830998
-0.00388359200974
-0.00117887784512
-0.0147895017293
0.0192231541619
-0.016782345492
0.020797441568
0.00623559296092
-0.0107308140501
0.0313655796565
-0.0109879058907
-0.00499265381527
0.00532378886724
-0.0227818298921
-0.0239170714497
-0.00835533917807
0.0105188551404
-0.0285153725498
-0.00816738347806
-0.00950011414449
-0.0261176241441
-0.00730333515076
-0.011175330286
-0.0237110332798
0.00222311384145
-0.0241027918599
0.00586287328842
-0.0303937996651
-0.025642327657
-0.0249951219176
-0.00267452901805
-0.013208411184
-0.0295494015115
0.00440149282063
-0.0207463243351
-0.035197525594
-0.00119690899707
0.0145022807226
-0.00600734421416
-0.00749738984603
0.0179232128335
0.0102139564222
-0.0303788257767
0.021712698226
-0.0111396041101
-0.0231244374056
-0.0238634819729
-0.0215099403346
-0.0287341445703
0.00478777692833
0.00636734877093
-0.00188945740707
-0.0182217284744
-0.00447697826002
-0.0218654187326
-0.00837110810461
-0.0161652795177
0.0229900135653
0.00917871962274
-0.0244176150671
-0.0145748653224
-0.0159242132901
-0.0127036192976
-0.0288872428862
-0.029552845849
-0.0129785723064
-0.00199028196201
-0.00431671971604
-0.0210350941834
-0.026108929135
0.00578197223176
0.0135835565451
0.00914304038549
-0.0158969274798
-0.00415652485501
0.00343790517572
0.00513641564597
0.0252221872265
-0.0030101545133
0.0451001374865
-0.00347051768271
0.0134784163045
0.024324628391
0.00665661594404
0.00612080101838
0.0246569293337
0.0218558548217
0.0124034372599
0.00704715430511
-0.00481057363621
0.011857935455
-0.00216493108616
-0.00811238829139
-0.0190234860889
-0.00805352782561
-0.0108917028316
-0.0267798859854
-0.0229381625187
-0.029775293444
-0.0135975135437
-0.00786689482538
0.0204222594023
-0.0130985352954
-0.00563804591862
-0.018376099233
0.00766778462483
-0.00784472008566
-0.0288025135897
-0.00462548916804
-0.0149694853824
-0.0303610014763
-0.0084236651347
-0.0111758933912
-0.0254845416742
0.0128502202549
0.0161046431744
-0.0228515952104
-0.00775737630014
-0.0251403600203
-0.010299602741
-0.0237172766947
0.0107098922897
0.0101044943166
-0.0325015408725
-0.0160013401153
-0.0286164150371
-0.0119424460143
-0.0264853309645
-0.022315811977
-0.0244343254244
0.0135732408801
-0.00510073845265
0.0231329640558
-0.00859189528952
0.00228908014291
0.0366425299246
-0.0280155515541
-0.0142446240093
-0.0231183781263
-0.0128711846508
0.0384186952917
0.0114432332386
0.0137363844246
0.00387322376636
0.00651005701207
0.00471417212827
-0.00612494427839
-0.020195863374
-0.023254331549
0.0266288767652
-0.0181308898423
-0.0245784111974
0.021255713239
0.00653825018391
-0.0201165695075
-0.0154575950695
0.0192111097355
0.00443798006378
-0.0185547666082
-0.014119283394
0.00413958203449
0.0201552734059
-0.0218193019018
-0.00808964775561
0.00862353594885
0.000284026624027
-0.00896080269258
-0.0263502347478
6.01559542942e-05
-0.0258204979595
-0.0293235128256
0.0325884609203
-0.0284605162655
-0.012424122614
-0.0134783822661
-0.029543687864
-0.00302917153621
-0.0252451788573
-0.0133322508922
-0.0159350395064
0.0115251258062
0.00527133567093
-0.0256908378235
-0.0147899070842
0.00813665691876
0.034533267966
-0.0550539086782
-0.0258707764006
-0.0284283403583
0.00127256076433
0.00981099332145
-0.0108694284963
-0.00718799401278
-0.0267598133287
-0.0303235385813
-0.028718080256
-0.00435359465291
-0.0134583393782
0.0300789564426
-0.0260238936802
-0.00652256717388
-0.0020046961106
0.0110718915366
-0.00387055530482
0.0204474870511
-0.0257428486627
-0.0178963083169
-0.000775388104976
-0.0223999822368
0.0120512348547
0.0128515596799
-0.0337902625758
-0.0178485354433
-0.0115665771794
-0.00960406176737
0.00890571995136
0.000298071664069
0.0079674522581
-0.00483740858468
-0.0111276642812
-0.0162401241877
-0.00335196304724
0.00533814531412
0.0235567918537
-0.0229408590437
-0.000820247044545
-0.0280874987471
-0.0290490343192
0.0141363997591
-0.0288311613584
-0.0107538761668
0.00457725504905
-0.0255778363252
0.0324178378659
0.0205758348668
-0.00548162451665
-0.0173788244754
-0.0446070465847
0.00404478870378
-0.0376836896713
-0.0223704546675
0.0192337704989
-0.000478873032235
-0.0123098546836
-0.0045389303638
-0.00415756063407
-0.00298523107812
-0.00311061202263
-0.0123445291971
0.00910119439236
0.0095702396002
0.0019230303952
-0.0260365846063
-0.00769003747441
-0.00972886030968
0.0114158276019
-0.00889095937916
-0.0107480302842
-0.0260668688039
-0.00242435326117
0.0290115282617
-0.0152174633534
-0.0231793193221
-0.0259619690161
-0.016784799794
-0.00745226132024
0.0115633654353
-0.00558507472105
-0.000889694386516
-0.000401324560301
0.00540122460234
-0.0357221590411
-0.00200285195972
-0.010784829292
0.00142378838349
-0.0297736363627
0.0139741283943
-0.0228687455301
0.000959509060004
0.0123621429001
0.0138059641024
0.0258275692091
-0.000944076106708
-0.0446227972127
-0.00581090651647
0.0220880856833
-0.0143037597265
0.024621741234
-0.0230225131981
-0.0320586019158
-0.00127804573591
-0.0271402391329
0.0234057314336
-0.024340226681
-0.0236549890927
0.00879968250863
-0.0126579435306
0.0258165723015
-0.0251321288487
-0.00990464320648
-0.0229497763226
-0.0269812046288
-0.0214240966593
0.00230217999931
0.035307502196
-0.0218065945615
-0.00586887315768
-0.0194576919899
0.0122085944993
-0.00861037670794
-0.0265456169489
0.0446242724465
-0.0168885137936
-0.0243205508924
-0.0130272457777
-0.00700633814221
0.00245761838632
-0.0160458900866
0.0046749664532
-0.0316727826735
-0.0288249661626
0.0474887932525
0.00203029362023
-0.00976844575941
-0.0182851625706
-0.00330764772887
-0.00941262419502
-0.00627854523027
0.019394520132
-0.0194618369244
-0.00562170802247
0.0108091617601
-0.0326072804781
-0.0101591312342
-0.00419348747465
-0.00969983980322
0.0238943590223
-0.00382095021571
-0.00370011385142
-0.00854630408961
0.00600926991464
0.0107107941884
-0.0130268253408
-0.00602946673779
0.0382401767839
0.00891028680301
-0.0262479224713
-0.0178012600951
-0.00791022344414
-0.00823361728824
0.0229998240144
-0.0131814482447
0.0228968133357
0.00870292589284
-0.0163582518712
-0.0202598344753
-0.00780855898357
-0.00148133991178
0.00095134089492
0.0219923344021
-0.0303566346844
-0.00394201334363
0.00922995248063
-0.0168475540422
0.0216322031564
-0.0255355255645
0.0046466863088
-0.0279503253996
-0.0281782481174
-0.0176604234079
-0.0207751054406
0.0098574971319
0.00517276394168
-0.0280735669999
-0.0237063734526
-0.0249400528854
0.00804189228322
0.00134154230644
-0.000888369071526
-0.00908326881147
0.0231378495898
-0.00437907983766
0.0337571577444
-0.0451635981086
-0.00237966898841
-0.00540076890184
-0.0108925759139
-0.00703660756634
-0.0241480801916
-0.0192036733913
-0.0241158580047
-0.0259034334476
-0.00542880036145
0.022822205798
-0.00304061529537
-0.026117042034
0.0136820668835
-0.0146912465315
-0.00929590348507
-0.0225900145509
0.0192678351955
-0.0160051685601
-0.0192991417977
-0.00827936703184
-0.0213224088714
0.010631997822
-0.0202952429067
0.0125362744778
-0.0246660796312
0.00353675573879
0.00779842328323
-0.00471341068281
-0.0129167169755
-0.0211822523946
0.0339684703683
-0.0311122618489
0.0147654625191
-0.0248047287697
0.0345045488128
0.034549818052
-0.0146879341922
-0.0240240333426
0.00614378100836
0.00824808617659
-0.0257378266469
0.000796609275587
0.00587389809797
0.0134284399656
0.00804115084538
0.0155291316847
-0.00282278855461
-0.0121385814669
-0.00429524242804
-0.00281109577701
-0.0184732465219
0.00139084852918
-0.0276082073129
0.00123017210775
-0.00618212233951
-0.00118336555155
0.00463849221733
-0.0283893951941
0.0258685135109
-0.0135960841741
-0.0113814519108
-0.00330225497867
0.0154801634982
-0.033839995853
-0.0274337762487
-0.00257035775571
-0.0278226705902
-0.0323630661973
-0.0264688055996
-0.0047796060957
-0.030284298833
-0.0107103358656
-0.0249206113716
0.0471153563165
0.00990256670018
-0.0119115143511
0.037712540951
-0.0118928461976
-0.0237428259057
-0.0109313671448
-0.0300547389419
0.0152277303495
-0.00380292887784
-0.0168632983826
-0.0138133664678
-0.00118421552242
-0.0282169902267
0.0209146471067
-0.000320076104205
-0.0270394322747
-0.0120097892497
-0.0307177369403
0.00507043197939
-0.0218698367974
-0.0157056524372
0.00654540194657
-0.0271577573105
-0.00238279804426
0.0212263650186
0.0220934701319
-0.00363580090736
-0.00977656017572
0.0184320147391
-0.024005648355
0.0122854191193
-0.0245373542864
-0.011819013445
0.0093503200622
0.0168486566502
0.0138997445723
-0.0277079458978
-0.0352222616686
0.0100629889327
0.0278005285757
-0.0244948941921
-0.00060312268647
-0.0223470991539
-0.00658971986583
-0.012829629845
-0.0240348213382
-0.0215973207107
-0.0326300269263
-0.0075174758911
-0.0307568385013
0.0366325315656
-0.0142476165059
-0.00461167595547
0.0102730310217
-0.00501222032519
-0.00675724714113
0.021455419371
-0.00262676620887
-0.0114232445395
-0.0270171863317
-0.00651233028932
-0.024481019622
0.02319328078
-0.00186708804493
0.000564092730798
-0.00786224282669
-0.0138820629565
0.0450673211008
0.0194019336955
-0.0106005757634
-0.0201676903546
-0.0126650045671
-0.0223532821602
-0.0124873293356
-0.0261955530215
-0.00930843077367
-0.00898896911938
-0.0259475399674
0.0289277810364
-0.00531966625445
-0.0328118980383
0.0208751830209
-0.0257253994163
0.0216387015928
-0.0022235068644
0.0211062097546
-0.00277945256068
-0.0158312189826
-0.00525847779622
0.0290061635637
0.0255582419458
-0.0240720996632
-0.0198951255342
0.00261058759414
-0.0187751630039
-0.0308180493463
-0.0252129821306
0.0299535434875
0.0374240294363
-0.0135005553467
-0.0235127099183
0.0270188933167
-0.0269730160438
-0.0189500402001
-0.022171254691
-0.021761371594
0.0157015092147
-0.0198286703486
0.00859175561038
-0.0226212453772
0.0124850713763
0.0252450463863
0.00439421586695
0.0386943659716
0.0453767847334
-0.0159013224149
0.0115278510563
-0.0244369294677
-0.012590825669
-0.0283649076081
-0.0157420737032
-0.0094081468905
0.0216551287989
-0.00126319661347
0.0116459214139
0.000898406353488
-0.00682920512243
0.00964017162868
0.020037885791
0.00172934519828
0.00608633910826
0.00572720766706
0.00246014099679
0.00645231616019
0.0189421374482
0.00666043432469
-0.0280814087537
-0.00799893551016
-0.0302408190365
0.0018998838834
-0.000566224173491
-0.00717880122138
-0.0201323882994
-0.000763881580231
-0.0180905343663
0.0213709089233
0.000284572049169
0.0415737303261
0.0342742980044
-0.0236171327383
0.0204038658164
-0.0108651636877
0.00195596737927
-0.0157307980774
-0.0245173116754
0.00604444145305
-0.00300009219171
-0.0178697632762
-0.0224617929718
-0.0221596883254
-0.00297182337696
-0.00998389742346
-0.0166263651668
0.0275072919884
-0.0268179747031
0.0189656224338
-0.0144261263102
-0.00236480189784
-0.0137840722045
-0.0204869213265
0.0185384035774
-0.0200832931907
0.010212828819
-0.0140056281137
0.0124687601134
-0.0220227232358
0.0142226154072
0.00759531802992
-0.0107580344401
-0.0152373180888
-0.0141697281707
-0.0339523764668
0.00339434851215
-0.00503647181566
-0.0326958379059
-0.0327099608176
-0.0203261956632
-0.0256525413718
-0.0144276863225
0.0218444439836
-0.0195322835903
-0.0236867674773
-0.0259391699228
-0.0172799802413
-0.0253812549179
-0.0170231883004
-0.0287852337698
0.0188843844113
-0.02150577577
-0.00282807119851
-0.0066169863246
0.0113065798679
0.000687833964284
-0.0303780737456
0.00188929712497
-0.0328774193424
0.00939816285494
0.016183634113
-0.0317951569817
0.0259021853624
-0.00283273807557
0.0111410333543
-0.0148230202214
-0.0254551295878
0.0127324119457
0.0105873639896
-0.0233733317073
-0.0219439780424
0.0139143629414
-0.00195969828792
-0.0140917821905
-0.0144346330876
-0.0196749583009
-0.0203982396927
-0.0259691315591
0.0202440110966
0.00350942519687
-0.0261251235687
0.000521311111812
-0.0257468271875
0.01549533189
-0.00335844826833
0.0325907174339
-0.00144586821182
-0.0147041737194
0.00644215883497
-0.00862695771825
-0.0251058395149
-0.030782157063
0.0373590426877
-0.0284052775399
-0.019197048223
0.0134630914389
-0.0094697648794
-0.0260166443246
-0.0136034799169
0.00992254233965
0.0137602405259
0.00301549657701
-0.0168689209792
-0.0068954434351
-0.00963818631719
-0.0294517147918
-0.00920515987945
-0.0312114149046
0.00791725773566
0.0212199192768
0.0189309533512
0.0132264106047
-0.0124481336187
-0.0159216385226
-0.0304992842451
0.00921432553806
-0.0239909567261
-0.0284546233353
0.00631523455054
-0.018195946366
-0.0250192991947
0.0164714592033
0.00638738806503
-0.0030152205138
-0.0110607023723
-0.00517987624259
-0.0254260476362
0.0119847099961
-0.0148003883629
0.0341603274748
0.00397237319157
0.0154973027035
-0.000682376757178
-0.0221362863041
-0.0154001003972
0.0139293554072
0.00458163763467
0.0195621073625
-0.0269728851997
-0.00188483864251
-0.0288641077769
-0.0186524483092
-0.0306279471975
0.00271023631128
-0.00467552905908
-0.0117302812523
-0.0221595687283
-0.00158227383002
-0.020369681391
-0.0289105017546
0.0172245636571
0.020680846275
0.00692123011761
-0.00911822609136
0.000315776814577
-0.00913183724786
-0.0267359274357
-0.0230832147066
-0.0408492369043
-0.00237604628305
-0.0278614866125
-0.000918182288871
0.0147221771325
-0.0294914501021
0.016157220214
0.00742622188337
-0.0256398407554
-0.0292134515954
-0.0240934100811
0.0301292891603
-0.002951949865
0.000527573354383
0.019038442967
-0.0246884409577
-0.0280558803365
-0.0107905220929
-0.0279681765146
-0.0242908747991
0.000719515096129
-0.0162368921801
-0.0266824458872
-0.00576344367871
0.00168898555099
0.00749068680585
-0.00265491948983
-0.00639968860951
0.00907206772684
0.0107112617924
-0.0168011169743
-0.00207976101919
0.0200390906053
0.0197259053552
0.0328519124282
-0.00367258835864
-0.0260687311234
-0.0325492687486
-0.0151179877378
-0.0073463900071
0.0155650246994
-0.0106899116018
0.0265419397666
0.0210749213595
-0.0033118792041
0.0044236476758
-0.00498623964769
-0.0154341281819
-0.00113621474552
-0.00819156204052
-0.04090169935
0.0190791165871
-0.00301665248834
-0.0187015601165
-0.0228408334511
-0.0242553119979
-0.0274019834293
0.0116603869754
-0.00981278805257
0.00581548159767
0.00968205366546
-0.00295418824406
-0.0163166512461
-0.0197216814197
0.00365241352211
-0.0250722553027
0.00486614579908
-0.0184729628429
0.00356374471554
-0.0232023885642
-0.0346742419255
-0.0123145750946
0.0146307665996
-0.0125552913795
-0.0126695798463
-0.015143301163
-0.00233519971654
-0.0251792926816
-0.00877650291308
-0.0386286644594
0.0148073669993
-0.000522094004765
-0.0242630901681
0.0355299846676
-0.00934028739185
-0.000645396105256
-0.0115193788448
-0.0299040448672
0.00253239232335
-0.000661823299212
-0.00584750322791
0.00617187179267
-0.00679483862528
-0.0275736642348
-0.0273236411024
0.00790859063177
-0.00087528814472
-0.0274645268896
-0.00164323297083
-0.0244677151257
0.00138766111939
0.0246555797406
-0.0183160454687
0.00411387865327
-0.0162318682144
-0.0219045331767
-0.0340705096605
-0.0159132150139
-0.0450640516026
0.0281774435103
-0.00129309984679
-0.0233765459859
-0.0271842453799
-0.0132114090364
0.0106992171214
0.0190364195036
0.00645546811542
-0.0340807634434
0.000137386700946
0.00040582813555
0.0442993038646
-0.0102188745196
0.00157902256557
-0.0254830427063
-0.00830152351312
-0.00860989843679
-0.0304680019544
-0.0231635032231
-0.00237297795691
-0.0152494913115
-0.0193564986565
-0.000886612954066
0.00415107833811
0.00656769215426
-0.00146860784743
-0.00815712958722
-0.00158876621853
0.00246759571958
-0.0142714523209
-0.00953843340198
-0.0209340781414
-0.0215511709209
0.039300303239
-0.012373373084
0.00833455731243
0.000492741642199
0.00442808929016
-0.0191623101603
0.00955485684946
0.00117574599274
-0.0142198603633
0.00164873493435
-0.0233981298257
0.0167188354812
-0.00870134017543
-0.0218184383963
0.00898210798932
0.00861228218751
-0.0180513115087
-0.0195450087823
-0.0153661381584
-0.00565875534024
0.0175724149206
-0.0265091328127
-0.0229196738094
-0.0210802298337
-0.0233551155914
-0.00246923483758
0.0232759719025
-0.0101451702872
-0.00936481974649
-0.0204148317567
0.0219203874697
-0.00894516061407
-0.0218383830899
-0.0243845012957
-0.000756124838731
0.0106162187283
-0.0252520673894
0.00105763735103
0.00409026125038
-0.00582441875991
0.013726187691
0.00208850896962
-0.0146382555258
-0.0209854919393
0.0231397802184
-0.00674340847683
-0.00737002565787
0.00169355410335
-0.0218283636832
-0.0184318562287
0.00762762285427
-0.0217417232162
-0.0303019292377
-0.00939525569375
0.0103385383444
0.011425654961
-0.0252466599497
-0.0217741892292
0.0132256093028
-0.0206045847777
-0.00170645030211
-0.00281235665188
-0.0170673155901
-0.0172873756775
0.00205079411241
-0.000442043302395
-0.0205564495637
-0.0364246648614
0.0430360143794
0.0207902222083
-0.00702572861164
0.00840499574516
0.0192060673875
-0.00175844937902
0.0186133748811
0.0371980534268
-0.0166965281328
0.0123563105896
-0.0350784157101
-0.0239023997293
0.00345664684976
-0.0154531427158
-0.00403692150295
-0.0124860728617
0.0223402110557
-0.0151928649225
0.0156734109634
-0.0130865707123
-0.0173939051496
-0.0230639638214
-0.00873310438921
0.0127513080623
0.00243436387529
-0.0052951463038
-0.022097823077
0.0123909892937
-0.01903477136
0.000544968501319
-0.0252390058124
-0.0239531493643
-0.00878615733285
0.00310521478442
-0.0126956983171
0.0186226762371
0.0118021640374
0.0195740116186
-0.0309323320698
-0.0278693455406
-0.00064818303309
0.0466634640999
0.00150008978582
0.000615426796121
-0.0102271042303
-0.000819628487343
0.00114526460225
-0.0323422825985
0.0131562184566
0.000108032080727
-0.0160817083113
-0.0270718111462
-0.0112228179858
-0.028139002304
0.0214110540694
-0.0393050503391
0.00389933416637
-0.0134554473934
-0.0122783095854
0.0148163833434
-0.00921319046211
-0.000764465376704
-0.0103303894573
0.00843941515242
-0.0246624451956
-0.0252346962198
0.00260839607314
0.0018309445927
0.022263654724
-0.00587572661193
-0.0181986160217
-0.0249988204135
-0.012946059699
-0.0122610250968
-0.0247699168708
0.0114622808247
-0.0120724802161
-0.00518679202816
-0.0290472063525
0.0032139987598
-0.0271221995319
-0.0240923011958
-0.00775367216604
-0.0279800943131
-0.0088816236007
-0.0273544652279
-0.0166452376902
0.0113209500115
-0.0228224599626
-0.0156972849407
-0.019827259307
-0.02334403035
-0.0155987754412
0.025391889168
0.00567449936515
-0.0125041395333
-0.0155230435755
-0.0260451526546
-0.00270640131239
-0.0083923875517
-0.0253133493236
0.0101706831142
0.0275559256022
-0.0288495576826
-0.0305766752935
-0.0253002829382
-0.0256006947648
-0.0165747545157
-0.0261444289705
-0.0131997254465
-0.00327676424278
-0.0143389403381
-0.0256978014221
-0.0045145432584
0.0284070667318
-0.00485039713029
-0.0271355854934
-0.0147578481594
-0.00861807522532
-0.005537153699
-0.0229915051195
0.014250759065
-0.0016419421924
-0.014340295282
-0.0157438803816
-0.00769398562252
-0.0225543041677
-0.0221027193521
0.00617631432986
0.0130349795988
-0.0267915288335
-0.0113347684109
-0.0032275352035
-0.0159328099303
-0.0114938707847
-0.00686038431621
-0.0111055349345
0.0183111353776
-0.00396229722919
0.00855570824395
-0.0252297789492
-0.00688419954354
-0.0285963230707
0.00272571815953
0.026254333217
0.00877651910113
-0.00265441399809
0.0214092555232
-0.0122150485805
0.00605429036124
-0.0222400041068
0.0309648587491
-0.00155214541097
-0.0313121443274
-0.0260818149121
-0.0097681353097
0.0241005012699
0.00089020360764
-0.0114873061805
-0.0109437078979
-0.0278903331754
-0.0243701761545
0.000104049271882
0.0253775953848
0.00346310119142
0.0181749535646
-0.000388383001719
-0.0239099292924
0.0136818531926
-0.0156422154463
0.0125951245516
-0.0184537483444
0.0122765893431
0.0193770046666
-0.0127193005636
0.00888566403463
0.00644723268473
-0.0242642901159
-0.0297095740802
-0.0189835638848
-0.0339829386962
-0.00637292356207
-0.00937672322921
-0.00379843994653
0.00584185850525
-0.0275700489697
-0.0277368185181
0.0196992833813
-0.00932268362505
-0.00766845917498
0.00325003898457
-0.00370042897294
-0.0158532469851
-0.0102226425379
0.0159882849479
-0.032178167638
0.00607110607332
0.0196485093556
-0.018354095835
-0.00494187663568
-0.0156307477562
0.0124008708511
-0.0249353051463
-0.027768266178
0.016608480249
0.0261385388511
-0.00690796222159
0.00762352264498
-0.0103793955746
-0.0030594258064
-0.0243244120028
-0.0270126963411
0.028869415135
-8.98465243337e-05
-0.0147350464206
-0.00197668576688
-0.0264368952179
-0.00341414984145
-0.0109960553738
-0.00508575695272
-0.00648042118282
0.0320002155589
0.0132431350537
-0.0079745889753
-0.00690410874082
-0.0222650746831
0.00336374192993
-0.0263947770352
0.00507395353257
-0.0022847189091
-0.0240873847108
-0.00172987151483
-0.0263704363024
-0.020785221883
-0.01236397502
-0.00234448160103
0.00783334118545
-0.0218650327667
0.0201515387848
-0.00931157808157
-0.0226165312912
-0.0278803511333
-0.00814947225569
-0.010547267455
0.00381826675507
-0.0148470984297
-0.0207195330889
0.0142489414947
-0.0285658057246
-0.0298585017978
-0.0293817426806
0.00868778461297
0.0180130941863
0.0309572409844
-0.0185751858182
-0.00994686203912
-0.0143525725059
0.0116842264637
-0.0318529787761
-0.00755838479964
-0.00902624993179
0.0042070867153
0.00540831444653
-0.0304733049689
-0.0100065299797
-0.0285688559864
-0.0275131660196
-0.00942637620042
-0.0137018829023
-0.0185849454962
-0.0249334365978
0.00792616211919
-0.0215067148745
-0.0179795650894
-0.00379886583712
0.00697483506421
-0.00635857530258
0.0189555789449
0.0115193373039
0.00764205231319
0.0143755082449
0.0110885109964
0.0377179538052
0.0199006925856
-0.0286038628722
-0.0310666655198
-0.00763095397421
0.0289668437429
-0.00311054764539
-0.0109858514354
-0.025288049719
0.0224578508018
-0.00777198009942
-0.0262069047447
-0.0196467932606
-0.0203656410047
-0.00658307595619
-0.0373490486243
0.00756870893733
-0.0265518721807
-0.00965506934323
0.00334574412704
-0.00729080939408
-0.0190299248067
-0.00162470206811
-0.0118771832394
0.0345039560377
0.00982869029759
-0.00788254439626
-0.0174095089168
0.0127434821663
-0.0140970202617
-0.00698609676978
-0.0148747958923
-0.0173559008971
0.0116048005022
-0.00487154479272
-0.00378295945015
0.0401278551605
-0.0283483533492
-0.00841324892104
-0.00312381837794
-0.0165249086128
0.0321212669486
-0.0228559794166
-0.0299827937527
0.0139335638916
0.00453650512518
0.010832709619
0.0257206717087
-0.00988918902978
0.0102773448887
-0.00438026695567
0.00475623741861
-0.00902339037394
-0.0136036284703
-0.0106774238266
-0.00316073998848
-0.0274263449566
-0.0242046800936
0.00968382094872
-0.00123387078679
0.00984847912009
-0.0109651013789
0.0167251041424
-0.0246467758213
-0.0156545900371
0.040467477764
0.00608164059159
-0.0274990226919
-0.0122956925469
-0.0265098320876
0.0164640388199
-0.00422073442048
-0.0141162122409
-0.0132322770432
0.00343786248581
-0.0194477887375
-0.0341029534831
0.0185912603843
-0.0253668490478
-0.0144332818227
-0.00583284516429
0.0030608491167
0.0299895120774
-0.015834971756
-0.00973697482884
-0.0077922005693
-0.0242805532912
-0.00950969946271
0.0325854319393
-0.0330776169151
-0.0162430517762
0.00653618805001
-0.0223412771968
-0.0214179375065
-0.0178746009983
0.0186554560113
-0.000959432203628
-0.0277268617919
-0.0264103507086
-0.030105526248
-0.009192689068
0.0167309788298
-0.0208923230004
-0.0126045180858
0.0213554051925
-0.0166396213521
-0.0270961526268
0.0280077283816
-0.0033188753132
-0.00513378693318
-0.0279910596592
-0.00820359195398
